<?xml version="1.0"?>
<opencv_storage>
<stage12>
  <maxWeakCount>5</maxWeakCount>
  <stageThreshold>-1.1050295829772949e+00</stageThreshold>
  <weakClassifiers>
    <_>
      <internalNodes>
        0 -1 286338 -248000165 -753795201 1371558349 -235284257
        -1625041989 -120864692 -1090406193 -201332289</internalNodes>
      <leafValues>
        -6.5579712390899658e-01 5.6565654277801514e-01</leafValues></_>
    <_>
      <internalNodes>
        0 -1 219853 -585895567 -166653451 -721161765 -1111914437
        -1459367424 -83177304 -66456229 2135829831</internalNodes>
      <leafValues>
        -7.3507243394851685e-01 4.5911255478858948e-01</leafValues></_>
    <_>
      <internalNodes>
        0 -1 300185 -481304740 -1438170873 1090605321 -1676340920
        -1725974527 -1954118605 -674557696 -4681</internalNodes>
      <leafValues>
        -6.5338635444641113e-01 5.0128018856048584e-01</leafValues></_>
    <_>
      <internalNodes>
        0 -1 80816 1503332341 -612257535 -44337766 -737521634 2106279089
        -1181579261 2110601643 1027610831</internalNodes>
      <leafValues>
        -7.1227234601974487e-01 4.7157797217369080e-01</leafValues></_>
    <_>
      <internalNodes>
        0 -1 297757 -537287883 -648965621 1359020861 -1757162725
        -909154847 -2003892044 -229508965 1828571781</internalNodes>
      <leafValues>
        -6.9312995672225952e-01 4.9683210253715515e-01</leafValues></_></weakClassifiers></stage12>
</opencv_storage>
