<?xml version="1.0"?>
<opencv_storage>
<stage10>
  <maxWeakCount>4</maxWeakCount>
  <stageThreshold>-8.4184467792510986e-01</stageThreshold>
  <weakClassifiers>
    <_>
      <internalNodes>
        0 -1 344222 -201889825 -2045263593 889576727 -366760553
        -1341037775 -895794448 -711853995 -861147725</internalNodes>
      <leafValues>
        -7.9772728681564331e-01 3.2580643892288208e-01</leafValues></_>
    <_>
      <internalNodes>
        0 -1 293140 -572525857 1705693442 -855508080 -673491814
        -892362089 -1414102390 -131610220 1979184487</internalNodes>
      <leafValues>
        -8.4706938266754150e-01 3.4344872832298279e-01</leafValues></_>
    <_>
      <internalNodes>
        0 -1 254433 1937199953 1901186831 -1927176745 -2899827
        -649129325 -29786088 1295903907 -4461877</internalNodes>
      <leafValues>
        -6.6834133863449097e-01 5.3053212165832520e-01</leafValues></_>
    <_>
      <internalNodes>
        0 -1 204713 -539189284 358565112 -1981276235 1405970944
        -1152009237 434672610 -1463811622 955164811</internalNodes>
      <leafValues>
        -8.4275853633880615e-01 4.4895601272583008e-01</leafValues></_></weakClassifiers></stage10>
</opencv_storage>
