<?xml version="1.0"?>
<opencv_storage>
<stage11>
  <maxWeakCount>5</maxWeakCount>
  <stageThreshold>-1.0652306079864502e+00</stageThreshold>
  <weakClassifiers>
    <_>
      <internalNodes>
        0 -1 397205 -748161034 -791562489 -1425466402 -686030989
        -875568393 -660383594 -343367954 -1426070561</internalNodes>
      <leafValues>
        -6.0351318120956421e-01 5.0993376970291138e-01</leafValues></_>
    <_>
      <internalNodes>
        0 -1 302484 -105579266 -157290273 -686440546 797696530
        -385423617 -207452688 -271791430 177204894</internalNodes>
      <leafValues>
        -7.4609255790710449e-01 3.9897978305816650e-01</leafValues></_>
    <_>
      <internalNodes>
        0 -1 285518 1900533503 -181341268 1343537396 -1655378185
        -1815479339 -1347100200 -912337487 -8972157</internalNodes>
      <leafValues>
        -5.6799501180648804e-01 5.2852332592010498e-01</leafValues></_>
    <_>
      <internalNodes>
        0 -1 295604 1092277752 -686781988 -1350102273 -1101074123
        -568058949 -22020040 -118079761 1046510463</internalNodes>
      <leafValues>
        -7.9269343614578247e-01 3.5845321416854858e-01</leafValues></_>
    <_>
      <internalNodes>
        0 -1 142370 -843723482 -480526226 -1039743619 -1214802708
        -1976570453 -367591396 -1278522388 -437146059</internalNodes>
      <leafValues>
        -5.9652715921401978e-01 5.1483941078186035e-01</leafValues></_></weakClassifiers></stage11>
</opencv_storage>
