<?xml version="1.0"?>
<opencv_storage>
<stage13>
  <maxWeakCount>6</maxWeakCount>
  <stageThreshold>-1.4589341878890991e+00</stageThreshold>
  <weakClassifiers>
    <_>
      <internalNodes>
        0 -1 64058 -363331597 -548143339 953518481 -117354239 -328990729
        -74727087 -641214205 -9175227</internalNodes>
      <leafValues>
        -6.2642949819564819e-01 5.2483803033828735e-01</leafValues></_>
    <_>
      <internalNodes>
        0 -1 259552 1651704535 -493409653 -753569515 -237121193
        -184069217 -394084181 -506501241 -2118689</internalNodes>
      <leafValues>
        -5.8152580261230469e-01 5.1634895801544189e-01</leafValues></_>
    <_>
      <internalNodes>
        0 -1 410235 -336994321 -1358954561 -1346371590 -1413759305
        1962147799 -17301513 -1377376544 -1360005394</internalNodes>
      <leafValues>
        -4.8638224601745605e-01 5.9973245859146118e-01</leafValues></_>
    <_>
      <internalNodes>
        0 -1 241353 1605369598 -1749229834 1621652844 -1246691503
        1418463924 1891433868 -1092309761 -329009</internalNodes>
      <leafValues>
        -6.5016531944274902e-01 4.5532611012458801e-01</leafValues></_>
    <_>
      <internalNodes>
        0 -1 264576 489594223 -15072987 -803515243 1039635573 -365427795
        -1096571957 1789594317 459740937</internalNodes>
      <leafValues>
        -6.8569010496139526e-01 4.9163195490837097e-01</leafValues></_>
    <_>
      <internalNodes>
        0 -1 45458 -1219968532 -161021789 -157682535 -605306741
        -65550158 -551819090 -917191521 2146910719</internalNodes>
      <leafValues>
        -6.3594096899032593e-01 4.7338399291038513e-01</leafValues></_></weakClassifiers></stage13>
</opencv_storage>
